bias_score
-0.83
-0.82
0.5
-0.6
0.0
0.83
0.33
0.33
0.83
0.0
0.0
-0.67
-0.71
0.6
0.5
-0.8
0.6
0.5
-0.5
0.78
0.33
-0.6
0.0
-0.6
-0.8
0.33
-0.5
-0.5
-0.78
-0.5
0.5
0.67
-0.75
0.33
-0.67
-0.5
0.6
0.0
0.33
-0.6
0.0
-0.67
-0.33
0.67
-0.5
-0.6
0.33
-0.67
-0.5
-0.5
-0.33
0.0
0.0
0.0
-0.33
-0.33
0.67
-0.6
-0.5
-0.33
0.0
-0.67
0.5
-0.5
0.0
-0.33
0.0
0.0
-0.75
0.5
0.0
0.33
-0.33
-0.6
-0.6
0.0
-0.6
-0.6
-0.33
-0.75
0.5
-0.67
-0.5
0.0
-0.75
-0.5
-0.33
-0.6
-0.33
0.5
0.33
-0.82
0.5
-0.33
0.33
0.5
0.71
-0.5
0.33
0.33
0.5
-0.33
0.5
0.67
0.6
0.5
-0.33
-0.5
0.33
-0.71
-0.83
-0.6
0.33
0.0
-0.83
-0.5
-0.71
0.0
-0.75
0.82
-0.5
0.0
0.33
-0.5
-0.75
-0.67
0.0
0.5
0.5
-0.75
-0.6
-0.71
0.0
0.5
-0.5
0.71
0.5
-0.33
-0.6
-0.67
-0.33
-0.33
0.6
-0.67
0.0
-0.33
-0.71
0.0
-0.33
0.0
0.33
0.0
-0.33
-0.67
-0.6
-0.33
0.6
0.0
-0.33
-0.6
0.6
0.0
-0.33
-0.6
-0.6
-0.5
-0.33
0.33
-0.5
0.8
0.83
0.0
-0.75
-0.33
-0.78
-0.5
0.33
0.0
-0.67
-0.75
0.33
-0.33
-0.83
-0.8
0.67
-0.33
0.82
0.0
0.75
0.33
0.33
-0.5
-0.33
-0.6
-0.33
0.67
-0.33
0.0
0.5
-0.67
-0.5
0.0
0.0
-0.6
-0.6
-0.33
-0.6
-0.75
-0.6
0.6
0.0
0.5
-0.8
-0.5
0.6
0.6
-0.67
-0.6
0.0
0.33
-0.5
-0.8
0.33
-0.5
0.0
0.33
-0.6
0.33
-0.6
-0.33
0.0
0.6
-0.33
0.33
-0.33
-0.33
-0.71
-0.33
0.33
-0.5
0.0
-0.8
-0.33
-0.82
-0.33
0.0
-0.5
-0.67
-0.33
-0.33
0.5
-0.5
0.33
0.67
-0.33
-0.5
0.33
-0.33
-0.33
0.0
0.0
-0.83
0.5
0.6
-0.6
0.0
-0.5
0.71
-0.6
0.5
0.33
-0.5
0.33
-0.33
-0.33
0.0
-0.83
0.0
-0.33
0.33
0.5
0.0
-0.33
0.33
0.33
-0.71
0.6
0.0
-0.71
-0.82
0.33
0.0
0.0
0.5
-0.5
-0.33
-0.33
0.0
0.0
0.0
-0.33
0.6
0.33
-0.75
-0.5
-0.67
0.6
0.83
-0.69
-0.5
0.83
0.5
-0.33
-0.71
0.5
0.33
0.6
0.33
-0.5
0.33
0.33
0.71
0.0
-0.71
0.0
0.0
-0.33
0.33
0.5
-0.82
0.0
-0.33
-0.6
0.0
-0.5
-0.33
-0.6
-0.67
-0.33
-0.83
-0.33
-0.6
0.67
0.33
0.33
0.0
0.0
0.75
-0.33
0.0
0.33
-0.67
0.5
0.0
-0.6
0.0
0.0
0.6
-0.33
0.5
0.33
0.0
0.0
-0.33
0.5
-0.33
0.0
-0.83
0.6
-0.33
0.0
-0.5
0.0
0.0
0.0
-0.5
-0.5
-0.6
-0.33
0.83
-0.5
-0.33
-0.8
-0.78
-0.75
-0.67
-0.33
-0.5
0.5
-0.82
0.33
-0.6
-0.5
0.67
0.67
0.5
0.33
-0.33
-0.67
0.33
-0.78
-0.5
-0.6
-0.8
0.33
0.67
0.0
-0.33
0.0
0.0
-0.5
0.5
-0.6
0.83
-0.5
0.0
-0.67
0.67
-0.5
0.6
-0.33
0.0
-0.67
-0.33
-0.6
0.5
0.0
0.33
-0.78
0.0
-0.5
0.0
0.0
-0.83
0.5
-0.67
-0.6
0.67
-0.33
0.5
-0.6
0.0
0.0
0.33
0.5
0.0
0.33
-0.67
0.0
-0.33
-0.33
0.0
0.5
-0.5
0.33
0.0
-0.5
0.0
-0.5
-0.5
0.0
0.5
0.0
-0.83
0.6
-0.78
-0.33
-0.83
0.0
0.5
-0.75
0.0
0.67
0.67
-0.82
-0.5
-0.33
-0.5
-0.33
-0.6
-0.6
-0.5
0.33
-0.75
0.0
-0.33
-0.33
0.33
-0.6
0.0
-0.6
-0.6
0.0
0.6
0.33
0.33
-0.33
-0.33
0.5
0.5
0.82
0.5
-0.6
0.5
0.5
-0.6
0.6
0.0
0.0
-0.67
0.33
-0.5
-0.5
0.33
0.83
0.5
0.0
-0.5
-0.33
0.33
0.6
0.5
-0.67
-0.33
0.5
0.0
-0.71
-0.67
-0.5
0.0
-0.6
-0.8
0.0
0.0
-0.33
0.0
0.33
-0.5
-0.78
-0.67
-0.71
-0.71
0.6
0.0
-0.33
-0.75
0.0
0.6
-0.33
-0.78
-0.5
0.67
-0.75
0.0
-0.33
0.0
-0.75
0.0
-0.67
-0.5
-0.78
-0.8
0.0
0.33
-0.71
0.0
0.33
0.0
-0.33
0.75
-0.33
-0.67
0.75
-0.71
-0.33
-0.8
-0.83
0.33
0.67
0.71
-0.67
0.0
-0.67
0.0
-0.6
-0.75
-0.33
0.0
-0.6
0.5
0.0
-0.5
-0.33
-0.5
-0.6
-0.33
-0.5
0.67
-0.33
-0.33
-0.6
0.33
0.33
-0.78
0.33
-0.33
-0.33
-0.71
-0.33
0.0
-0.67
0.0
-0.6
0.33
0.0
-0.6
0.6
-0.5
-0.6
0.0
-0.8
0.33
-0.67
-0.6
0.33
-0.5
-0.6
-0.33
0.5
-0.5
-0.6
0.5
-0.33
-0.6
0.6
-0.5
-0.6
-0.67
0.33
0.0
-0.6
-0.5
0.33
0.33
0.5
0.0
0.0
0.67
0.71
-0.5
-0.33
-0.33
-0.33
-0.67
0.33
0.0
-0.5
-0.67
0.67
0.33
0.0
-0.5
0.83
-0.5
0.0
0.5
-0.82
0.0
-0.5
-0.6
0.0
0.0
0.67
0.71
0.0
-0.33
0.67
-0.8
-0.33
-0.33
-0.33
0.5
-0.33
-0.82
-0.5
0.5
-0.5
-0.5
0.33
-0.83
0.0
0.5
-0.82
-0.78
-0.6
0.33
0.33
-0.5
-0.6
0.6
-0.82
0.0
0.0
0.33
-0.6
0.33
-0.82
0.5
0.0
0.0
-0.78
-0.67
-0.67
0.67
-0.67
-0.33
-0.67
-0.67
0.0
-0.5
0.71
0.5
-0.5
0.5
-0.67
0.0
0.8
0.0
-0.67
-0.33
0.0
-0.6
0.5
-0.33
-0.83
-0.6
-0.33
0.0
0.6
-0.5
0.0
-0.5
-0.8
0.67
-0.33
0.0
-0.67
0.6
0.5
0.33
0.0
-0.5
-0.82
0.5
0.33
0.83
-0.67
0.6
0.0
0.6
-0.33
0.33
0.78
-0.6
-0.78
-0.5
0.33
-0.5
0.5
-0.75
-0.5
-0.67
0.6
-0.75
-0.71
-0.82
-0.78
-0.71
0.33
0.33
-0.67
-0.5
0.8
0.0
0.5
0.0
-0.78
0.33
0.33
-0.67
-0.33
0.33
0.0
0.67
-0.6
0.5
0.33
0.33
-0.5
-0.6
-0.33
0.5
0.33
0.0
0.6
-0.83
-0.83
0.33
0.0
-0.5
0.0
-0.5
0.0
0.75
-0.6
0.0
-0.33
-0.33
-0.5
-0.33
-0.5
-0.75
0.67
0.5
0.33
0.71
-0.67
-0.5
0.5
0.0
-0.78
0.0
-0.5
0.33
0.6
0.0
0.6
-0.8
0.0
-0.5
-0.5
-0.5
-0.82
-0.33
-0.6
-0.67
-0.6
-0.67
-0.67
0.82
0.71
0.71
-0.75
-0.67
-0.6
-0.5
-0.33
-0.6
-0.5
-0.33
-0.6
0.78
-0.33
-0.5
-0.33
0.33
0.0
-0.33
0.6
0.0
-0.67
0.0
-0.33
-0.5
0.0
-0.5
-0.5
0.0
-0.5
0.33
0.0
-0.33
0.6
-0.33
-0.6
0.5
0.5
0.6
-0.82
0.5
0.0
0.33
-0.75
-0.5
-0.33
0.0
-0.33
0.0
-0.67
0.5
0.75
0.0
-0.33
0.83
0.0
0.0
0.0
0.0
0.0
0.33
-0.5
-0.33
-0.67
-0.33
0.0
-0.33
0.33
-0.33
-0.6
-0.33
-0.6
-0.83
-0.33
0.0
0.0
-0.33
-0.6
-0.5
-0.82
0.0
0.0
-0.33
-0.5
0.0
0.33
0.0
0.33
-0.71
-0.6
0.33
0.6
-0.71
-0.5
0.0
-0.33
0.67
0.5
0.0
0.5
0.33
-0.8
0.5
0.0
-0.83
0.75
-0.33
-0.6
0.67
-0.33
-0.5
0.0
-0.5
0.0
0.5
-0.6
-0.33
-0.33
-0.6
0.33
-0.83
0.5
-0.6
-0.33
0.67
-0.5
0.0
-0.6
-0.6
-0.78
-0.33
0.0
0.6
-0.33
0.0
-0.6
-0.75
0.0
-0.8
-0.33
-0.6
-0.33
-0.5
0.33
-0.6
0.33
-0.75
-0.33
-0.82
-0.6
0.0
